<?xml version="1.0"?>
<opencv_storage>
<cascade>
  <stageType>BOOST</stageType>
  <featureType>HAAR</featureType>
  <height>24</height>
  <width>24</width>
  <stageParams>
    <boostType>GAB</boostType>
    <minHitRate>9.9500000476837158e-01</minHitRate>
    <maxFalseAlarm>5.0000000000000000e-01</maxFalseAlarm>
    <weightTrimRate>9.4999999999999996e-01</weightTrimRate>
    <maxDepth>1</maxDepth>
    <maxWeakCount>100</maxWeakCount></stageParams>
  <featureParams>
    <maxCatCount>0</maxCatCount>
    <featSize>1</featSize>
    <mode>BASIC</mode></featureParams>
  <stageNum>6</stageNum>
  <stages>
    <!-- stage 0 -->
    <_>
      <maxWeakCount>3</maxWeakCount>
      <stageThreshold>-1.0129494667053223e+00</stageThreshold>
      <weakClassifiers>
        <_>
          <internalNodes>
            0 -1 2 5.3596336394548416e-02</internalNodes>
          <leafValues>
            -8.9473682641983032e-01 8.0952382087707520e-01</leafValues></_>
        <_>
          <internalNodes>
            0 -1 5 -4.1195504367351532e-02</internalNodes>
          <leafValues>
            7.4219238758087158e-01 -8.5275548696517944e-01</leafValues></_>
        <_>
          <internalNodes>
            0 -1 6 6.9455064833164215e-02</internalNodes>
          <leafValues>
            -7.8789931535720825e-01 7.3454284667968750e-01</leafValues></_></weakClassifiers></_>
    <!-- stage 1 -->
    <_>
      <maxWeakCount>3</maxWeakCount>
      <stageThreshold>-1.0913823843002319e+00</stageThreshold>
      <weakClassifiers>
        <_>
          <internalNodes>
            0 -1 12 -5.9974968433380127e-02</internalNodes>
          <leafValues>
            7.3242628574371338e-01 -8.9972144365310669e-01</leafValues></_>
        <_>
          <internalNodes>
            0 -1 8 -2.7363430708646774e-03</internalNodes>
          <leafValues>
            6.8261522054672241e-01 -7.4795377254486084e-01</leafValues></_>
        <_>
          <internalNodes>
            0 -1 4 -7.6123005710542202e-03</internalNodes>
          <leafValues>
            5.5629283189773560e-01 -9.2615073919296265e-01</leafValues></_></weakClassifiers></_>
    <!-- stage 2 -->
    <_>
      <maxWeakCount>3</maxWeakCount>
      <stageThreshold>-7.4166309833526611e-01</stageThreshold>
      <weakClassifiers>
        <_>
          <internalNodes>
            0 -1 3 3.2462224364280701e-02</internalNodes>
          <leafValues>
            -8.3547556400299072e-01 7.9075425863265991e-01</leafValues></_>
        <_>
          <internalNodes>
            0 -1 11 -1.0263994336128235e-03</internalNodes>
          <leafValues>
            8.2800900936126709e-01 -7.1782916784286499e-01</leafValues></_>
        <_>
          <internalNodes>
            0 -1 15 -9.7211252432316542e-04</internalNodes>
          <leafValues>
            8.1164163351058960e-01 -6.9112402200698853e-01</leafValues></_></weakClassifiers></_>
    <!-- stage 3 -->
    <_>
      <maxWeakCount>3</maxWeakCount>
      <stageThreshold>-7.3403894901275635e-01</stageThreshold>
      <weakClassifiers>
        <_>
          <internalNodes>
            0 -1 13 -4.1170241311192513e-03</internalNodes>
          <leafValues>
            8.7362635135650635e-01 -7.2935777902603149e-01</leafValues></_>
        <_>
          <internalNodes>
            0 -1 9 1.2527245096862316e-02</internalNodes>
          <leafValues>
            -6.9276678562164307e-01 8.2803678512573242e-01</leafValues></_>
        <_>
          <internalNodes>
            0 -1 7 1.4120704727247357e-03</internalNodes>
          <leafValues>
            -8.3271789550781250e-01 7.1860730648040771e-01</leafValues></_></weakClassifiers></_>
    <!-- stage 4 -->
    <_>
      <maxWeakCount>3</maxWeakCount>
      <stageThreshold>-7.3615610599517822e-01</stageThreshold>
      <weakClassifiers>
        <_>
          <internalNodes>
            0 -1 10 -5.3887080866843462e-04</internalNodes>
          <leafValues>
            1. -6.7364019155502319e-01</leafValues></_>
        <_>
          <internalNodes>
            0 -1 14 2.8223055414855480e-03</internalNodes>
          <leafValues>
            8.1639379262924194e-01 -8.0526036024093628e-01</leafValues></_>
        <_>
          <internalNodes>
            0 -1 1 -1.3482036301866174e-03</internalNodes>
          <leafValues>
            7.4274438619613647e-01 -9.9716722965240479e-01</leafValues></_></weakClassifiers></_>
    <!-- stage 5 -->
    <_>
      <maxWeakCount>1</maxWeakCount>
      <stageThreshold>1.</stageThreshold>
      <weakClassifiers>
        <_>
          <internalNodes>
            0 -1 0 -7.7771400101482868e-03</internalNodes>
          <leafValues>
            -1. 1.</leafValues></_></weakClassifiers></_></stages>
  <features>
    <_>
      <rects>
        <_>
          0 0 1 3 -1.</_>
        <_>
          0 1 1 1 2.</_></rects>
      <tilted>0</tilted></_>
    <_>
      <rects>
        <_>
          0 1 1 3 -1.</_>
        <_>
          0 2 1 1 2.</_></rects>
      <tilted>0</tilted></_>
    <_>
      <rects>
        <_>
          0 4 6 17 -1.</_>
        <_>
          3 4 3 17 2.</_></rects>
      <tilted>0</tilted></_>
    <_>
      <rects>
        <_>
          0 4 8 6 -1.</_>
        <_>
          4 4 4 6 2.</_></rects>
      <tilted>0</tilted></_>
    <_>
      <rects>
        <_>
          0 14 5 6 -1.</_>
        <_>
          0 17 5 3 2.</_></rects>
      <tilted>0</tilted></_>
    <_>
      <rects>
        <_>
          1 14 22 6 -1.</_>
        <_>
          1 17 22 3 2.</_></rects>
      <tilted>0</tilted></_>
    <_>
      <rects>
        <_>
          2 0 18 8 -1.</_>
        <_>
          2 4 18 4 2.</_></rects>
      <tilted>0</tilted></_>
    <_>
      <rects>
        <_>
          2 2 10 11 -1.</_>
        <_>
          7 2 5 11 2.</_></rects>
      <tilted>0</tilted></_>
    <_>
      <rects>
        <_>
          2 22 12 2 -1.</_>
        <_>
          2 22 6 1 2.</_>
        <_>
          8 23 6 1 2.</_></rects>
      <tilted>0</tilted></_>
    <_>
      <rects>
        <_>
          4 0 3 8 -1.</_>
        <_>
          4 4 3 4 2.</_></rects>
      <tilted>0</tilted></_>
    <_>
      <rects>
        <_>
          7 21 2 2 -1.</_>
        <_>
          7 22 2 1 2.</_></rects>
      <tilted>0</tilted></_>
    <_>
      <rects>
        <_>
          9 22 3 2 -1.</_>
        <_>
          9 23 3 1 2.</_></rects>
      <tilted>0</tilted></_>
    <_>
      <rects>
        <_>
          15 2 8 19 -1.</_>
        <_>
          19 2 4 19 2.</_></rects>
      <tilted>0</tilted></_>
    <_>
      <rects>
        <_>
          16 19 6 2 -1.</_>
        <_>
          19 19 3 2 2.</_></rects>
      <tilted>0</tilted></_>
    <_>
      <rects>
        <_>
          17 11 2 12 -1.</_>
        <_>
          17 11 1 6 2.</_>
        <_>
          18 17 1 6 2.</_></rects>
      <tilted>0</tilted></_>
    <_>
      <rects>
        <_>
          21 15 1 4 -1.</_>
        <_>
          21 17 1 2 2.</_></rects>
      <tilted>0</tilted></_></features></cascade>
</opencv_storage>
